{"learner":{"attributes":{"best_iteration":"25","best_score":"0.709025","scikit_learn":"{\"_estimator_type\": \"classifier\"}"},"feature_names":["total_transactions_30d","total_amount_30d","avg_amount_30d"],"feature_types":["int","float","float"],"gradient_booster":{"model":{"gbtree_model_param":{"num_parallel_tree":"1","num_trees":"36"},"iteration_indptr":[0,1,2,3,4,5,6,7,8,9,10,11,12,13,14,15,16,17,18,19,20,21,22,23,24,25,26,27,28,29,30,31,32,33,34,35,36],"tree_info":[0,0,0,0,0,0,0,0,0,0,0,0,0,0,0,0,0,0,0,0,0,0,0,0,0,0,0,0,0,0,0,0,0,0,0,0],"trees":[{"base_weights":[9.513197E-9,-7.8547525E-1,6.6131085E-1,-8.712355E-1,5.44055E-1,4.1356513E-1,1.3467287E0,-9.9688746E-2,8.571634E-3,-8.4617094E-4,1.0316217E-1,2.8394068E-2,6.452124E-2,9.6723236E-2,1.530848E-1],"categories":[],"categories_nodes":[],"categories_segments":[],"categories_sizes":[],"default_left":[0,0,0,0,0,0,0,0,0,0,0,0,0,0,0],"id":0,"left_children":[1,3,5,7,9,11,13,-1,-1,-1,-1,-1,-1,-1,-1],"loss_changes":[2.0881102E2,2.142482E1,3.6503006E1,2.0886948E1,3.173974E0,4.673567E0,2.5368958E0,0E0,0E0,0E0,0E0,0E0,0E0,0E0,0E0],"parents":[2147483647,0,0,1,1,2,2,3,3,4,4,5,5,6,6],"right_children":[2,4,6,8,10,12,14,-1,-1,-1,-1,-1,-1,-1,-1],"split_conditions":[4.2477056E3,4.2E1,1.2802019E4,3.8219537E2,4.6E1,8.874775E3,3.849435E2,-9.9688746E-2,8.571634E-3,-8.4617094E-4,1.0316217E-1,2.8394068E-2,6.452124E-2,9.6723236E-2,1.530848E-1],"split_indices":[1,0,1,2,0,1,2,0,0,0,0,0,0,0,0],"split_type":[0,0,0,0,0,0,0,0,0,0,0,0,0,0,0],"sum_hessian":[3.9999002E2,1.8274544E2,2.1724457E2,1.719957E2,1.0749731E1,1.6074599E2,5.649859E1,1.519962E2,1.99995E1,5.4998627E0,5.249869E0,1.0449739E2,5.6248596E1,2.0499489E1,3.59991E1],"tree_param":{"num_deleted":"0","num_feature":"3","num_nodes":"15","size_leaf_vector":"1"}},{"base_weights":[9.06603E-4,-7.081417E-1,5.979454E-1,-1.0735701E0,-4.1759843E-1,3.7305644E-1,1.2229366E0,-1.2146481E-1,3.5877716E-2,-4.857696E-2,9.585882E-2,2.5590668E-2,5.8263E-2,8.77459E-2,1.3911745E-1],"categories":[],"categories_nodes":[],"categories_segments":[],"categories_sizes":[],"default_left":[0,0,0,0,0,0,0,0,0,0,0,0,0,0,0],"id":1,"left_children":[1,3,5,7,9,11,13,-1,-1,-1,-1,-1,-1,-1,-1],"loss_changes":[1.6986652E2,1.9026543E1,3.0161545E1,1.6724167E1,1.020561E1,3.8192425E0,2.1040955E0,0E0,0E0,0E0,0E0,0E0,0E0,0E0,0E0],"parents":[2147483647,0,0,1,1,2,2,3,3,4,4,5,5,6,6],"right_children":[2,4,6,8,10,12,14,-1,-1,-1,-1,-1,-1,-1,-1],"split_conditions":[4.2477056E3,1.3714911E3,1.2802019E4,3.849435E2,4.6E1,8.874775E3,3.849435E2,-1.2146481E-1,3.5877716E-2,-4.857696E-2,9.585882E-2,2.5590668E-2,5.8263E-2,8.77459E-2,1.3911745E-1],"split_indices":[1,1,1,2,0,1,2,0,0,0,0,0,0,0,0],"split_type":[0,0,0,0,0,0,0,0,0,0,0,0,0,0,0],"sum_hessian":[3.9926303E2,1.8242613E2,2.168369E2,7.960657E1,1.02819565E2,1.6063348E2,5.6203423E1,7.260717E1,6.9993963E0,9.8583145E1,4.236423E0,1.044615E2,5.6171978E1,2.0441738E1,3.576169E1],"tree_param":{"num_deleted":"0","num_feature":"3","num_nodes":"15","size_leaf_vector":"1"}},{"base_weights":[1.5278985E-3,-6.408837E-1,5.421382E-1,-7.1561235E-1,5.1174814E-1,3.1340033E-1,1.0608436E0,-8.231823E-2,9.6572805E-3,5.581161E-3,9.063951E-2,-3.5442268E-3,3.6271878E-2,6.458019E-2,1.311145E-1],"categories":[],"categories_nodes":[],"categories_segments":[],"categories_sizes":[],"default_left":[0,0,0,0,0,0,0,0,0,0,0,0,0,0,0],"id":2,"left_children":[1,3,5,7,9,11,13,-1,-1,-1,-1,-1,-1,-1,-1],"loss_changes":[1.3871619E2,1.6087997E1,2.5401447E1,1.5091652E1,2.0539646E0,2.6268463E0,6.0051346E0,0E0,0E0,0E0,0E0,0E0,0E0,0E0,0E0],"parents":[2147483647,0,0,1,1,2,2,3,3,4,4,5,5,6,6],"right_children":[2,4,6,8,10,12,14,-1,-1,-1,-1,-1,-1,-1,-1],"split_conditions":[4.2477056E3,4.2E1,1.1981002E4,3.8219537E2,4.6E1,1.7E1,3.849435E2,-8.231823E-2,9.6572805E-3,5.581161E-3,9.063951E-2,-3.5442268E-3,3.6271878E-2,6.458019E-2,1.311145E-1],"split_indices":[1,0,1,2,0,0,2,0,0,0,0,0,0,0,0],"split_type":[0,0,0,0,0,0,0,0,0,0,0,0,0,0,0],"sum_hessian":[3.9741925E2,1.8152553E2,2.158937E2,1.7082928E2,1.0696245E1,1.5093765E2,6.495606E1,1.50838E2,1.9991285E1,5.492347E0,5.2038984E0,1.8730822E1,1.3220683E2,2.5783224E1,3.9172836E1],"tree_param":{"num_deleted":"0","num_feature":"3","num_nodes":"15","size_leaf_vector":"1"}},{"base_weights":[2.0608958E-3,-5.8125484E-1,4.92244E-1,-9.152597E-1,-3.1835678E-1,3.0274534E-1,1.0330977E0,-1.03912905E-1,3.192126E-2,-3.7464898E-2,8.215452E-2,2.0212522E-2,4.839096E-2,8.676859E-2,1.3366689E-1],"categories":[],"categories_nodes":[],"categories_segments":[],"categories_sizes":[],"default_left":[0,0,0,0,0,0,0,0,0,0,0,0,0,0,0],"id":3,"left_children":[1,3,5,7,9,11,13,-1,-1,-1,-1,-1,-1,-1,-1],"loss_changes":[1.134443E2,1.5616833E1,2.178275E1,1.2451553E1,6.9111624E0,2.8381767E0,1.6281662E0,0E0,0E0,0E0,0E0,0E0,0E0,0E0,0E0],"parents":[2147483647,0,0,1,1,2,2,3,3,4,4,5,5,6,6],"right_children":[2,4,6,8,10,12,14,-1,-1,-1,-1,-1,-1,-1,-1],"split_conditions":[4.2477056E3,1.3714911E3,1.2802019E4,3.849435E2,4.6E1,8.874775E3,1.7888596E4,-1.03912905E-1,3.192126E-2,-3.7464898E-2,8.215452E-2,2.0212522E-2,4.839096E-2,8.676859E-2,1.3366689E-1],"split_indices":[1,1,1,2,0,1,1,0,0,0,0,0,0,0,0],"split_type":[0,0,0,0,0,0,0,0,0,0,0,0,0,0,0],"sum_hessian":[3.947527E2,1.801679E2,2.145848E2,7.825968E1,1.0190821E2,1.6006328E2,5.4521526E1,7.126687E1,6.992813E0,9.775221E1,4.156001E0,1.0426777E2,5.57955E1,3.7789032E1,1.6732492E1],"tree_param":{"num_deleted":"0","num_feature":"3","num_nodes":"15","size_leaf_vector":"1"}},{"base_weights":[2.5439742E-3,-5.9682214E-1,3.9762124E-1,-7.0913357E-1,3.3631295E-1,2.1200915E-1,8.9993525E-1,-7.9382114E-2,5.2045967E-2,9.153148E-2,1.6625933E-2,-2.479465E-2,3.0952176E-2,5.1657278E-2,1.13924526E-1],"categories":[],"categories_nodes":[],"categories_segments":[],"categories_sizes":[],"default_left":[0,0,0,0,0,0,0,0,0,0,0,0,0,0,0],"id":4,"left_children":[1,3,5,7,9,11,13,-1,-1,-1,-1,-1,-1,-1,-1],"loss_changes":[9.3195244E1,1.6625313E1,2.1925182E1,1.4979469E1,1.5685261E0,7.9038773E0,5.2548676E0,0E0,0E0,0E0,0E0,0E0,0E0,0E0,0E0],"parents":[2147483647,0,0,1,1,2,2,3,3,4,4,5,5,6,6],"right_children":[2,4,6,8,10,12,14,-1,-1,-1,-1,-1,-1,-1,-1],"split_conditions":[3.432437E3,3.849435E2,1.1981002E4,4.2E1,4.1268515E2,1.7E1,3.849435E2,-7.9382114E-2,5.2045967E-2,9.153148E-2,1.6625933E-2,-2.479465E-2,3.0952176E-2,5.1657278E-2,1.13924526E-1],"split_indices":[1,2,1,0,2,0,2,0,0,0,0,0,0,0,0],"split_type":[0,0,0,0,0,0,0,0,0,0,0,0,0,0,0],"sum_hessian":[3.915656E2,1.5536021E2,2.3620541E2,1.3888425E2,1.6475954E1,1.7351227E2,6.269315E1,1.3026662E2,8.617635E0,2.7455034E0,1.3730451E1,3.0080997E1,1.4343127E2,2.5308622E1,3.738453E1],"tree_param":{"num_deleted":"0","num_feature":"3","num_nodes":"15","size_leaf_vector":"1"}},{"base_weights":[2.9708154E-3,-4.819929E-1,4.0863094E-1,-7.8706247E-1,-2.4662119E-1,2.4736446E-1,8.876438E-1,-8.955448E-2,2.6357329E-2,-2.9486587E-2,7.329438E-2,1.6184745E-2,4.026196E-2,7.319309E-2,1.1837306E-1],"categories":[],"categories_nodes":[],"categories_segments":[],"categories_sizes":[],"default_left":[0,0,0,0,0,0,0,0,0,0,0,0,0,0,0],"id":5,"left_children":[1,3,5,7,9,11,13,-1,-1,-1,-1,-1,-1,-1,-1],"loss_changes":[7.671367E1,1.2559387E1,1.6182522E1,9.000462E0,5.0231004E0,2.0622816E0,1.5814018E0,0E0,0E0,0E0,0E0,0E0,0E0,0E0,0E0],"parents":[2147483647,0,0,1,1,2,2,3,3,4,4,5,5,6,6],"right_children":[2,4,6,8,10,12,14,-1,-1,-1,-1,-1,-1,-1,-1],"split_conditions":[4.2477056E3,1.3714911E3,1.2802019E4,3.849435E2,4.6E1,8.874775E3,1.7888596E4,-8.955448E-2,2.6357329E-2,-2.9486587E-2,7.329438E-2,1.6184745E-2,4.026196E-2,7.319309E-2,1.1837306E-1],"split_indices":[1,1,1,2,0,1,1,0,0,0,0,0,0,0,0],"split_type":[0,0,0,0,0,0,0,0,0,0,0,0,0,0,0],"sum_hessian":[3.879419E2,1.7661354E2,2.1132835E2,7.589749E1,1.0071605E2,1.5923578E2,5.209258E1,6.892802E1,6.969472E0,9.665468E1,4.0613704E0,1.0399572E2,5.5240055E1,3.6414234E1,1.5678348E1],"tree_param":{"num_deleted":"0","num_feature":"3","num_nodes":"15","size_leaf_vector":"1"}},{"base_weights":[3.293791E-3,-4.9856073E-1,3.310257E-1,-5.9916174E-1,3.1494185E-1,1.8957096E-1,8.243941E-1,-6.7604356E-2,4.927768E-2,8.5054465E-2,1.5764607E-2,-2.2343239E-2,2.7214522E-2,6.740532E-2,1.116956E-1],"categories":[],"categories_nodes":[],"categories_segments":[],"categories_sizes":[],"default_left":[0,0,0,0,0,0,0,0,0,0,0,0,0,0,0],"id":6,"left_children":[1,3,5,7,9,11,13,-1,-1,-1,-1,-1,-1,-1,-1],"loss_changes":[6.351764E1,1.2674713E1,1.6147621E1,1.1760555E1,1.3357222E0,6.2969294E0,1.5235901E0,0E0,0E0,0E0,0E0,0E0,0E0,0E0,0E0],"parents":[2147483647,0,0,1,1,2,2,3,3,4,4,5,5,6,6],"right_children":[2,4,6,8,10,12,14,-1,-1,-1,-1,-1,-1,-1,-1],"split_conditions":[3.432437E3,3.849435E2,1.2802019E4,4.2E1,4.1268515E2,1.7E1,1.7888596E4,-6.7604356E-2,4.927768E-2,8.5054465E-2,1.5764607E-2,-2.2343239E-2,2.7214522E-2,6.740532E-2,1.116956E-1],"split_indices":[1,2,1,0,2,0,1,0,0,0,0,0,0,0,0],"split_type":[0,0,0,0,0,0,0,0,0,0,0,0,0,0,0],"sum_hessian":[3.841837E2,1.515676E2,2.3261609E2,1.3512141E2,1.6446186E1,1.818591E2,5.0756985E1,1.26589325E2,8.532091E0,2.7329643E0,1.3713222E1,3.0017534E1,1.5184157E2,3.5710262E1,1.5046722E1],"tree_param":{"num_deleted":"0","num_feature":"3","num_nodes":"15","size_leaf_vector":"1"}},{"base_weights":[3.6865727E-3,-4.54941E-1,3.0131656E-1,-5.483554E-1,2.8961244E-1,1.7108193E-1,7.667784E-1,-6.196137E-2,4.4978436E-2,-2.7848699E-3,5.159039E-2,-2.0195013E-2,2.4582068E-2,6.211747E-2,1.0574502E-1],"categories":[],"categories_nodes":[],"categories_segments":[],"categories_sizes":[],"default_left":[0,0,0,0,0,0,0,0,0,0,0,0,0,0,0],"id":7,"left_children":[1,3,5,7,9,11,13,-1,-1,-1,-1,-1,-1,-1,-1],"loss_changes":[5.2178932E1,1.0622482E1,1.3921049E1,9.810856E0,1.2661906E0,5.1354637E0,1.4759064E0,0E0,0E0,0E0,0E0,0E0,0E0,0E0,0E0],"parents":[2147483647,0,0,1,1,2,2,3,3,4,4,5,5,6,6],"right_children":[2,4,6,8,10,12,14,-1,-1,-1,-1,-1,-1,-1,-1],"split_conditions":[3.432437E3,3.849435E2,1.2802019E4,4.2E1,4.3365833E2,1.7E1,1.7888596E4,-6.196137E-2,4.4978436E-2,-2.7848699E-3,5.159039E-2,-2.0195013E-2,2.4582068E-2,6.211747E-2,1.0574502E-1],"split_indices":[1,2,1,0,2,0,1,0,0,0,0,0,0,0,0],"split_type":[0,0,0,0,0,0,0,0,0,0,0,0,0,0,0],"sum_hessian":[3.8025528E2,1.4944388E2,2.3081139E2,1.3301842E2,1.6425463E1,1.8141862E2,4.939276E1,1.2450882E2,8.509594E0,7.2006726E0,9.224791E0,2.9997019E1,1.5142162E2,3.4998363E1,1.4394399E1],"tree_param":{"num_deleted":"0","num_feature":"3","num_nodes":"15","size_leaf_vector":"1"}},{"base_weights":[3.8873318E-3,-3.66729E-1,3.1068438E-1,-6.459781E-1,-1.5849179E-1,1.8435714E-1,7.138344E-1,-7.0611544E-2,5.697281E-2,-2.115999E-2,4.5510795E-2,1.1206949E-2,3.1720266E-2,4.512545E-2,8.609291E-2],"categories":[],"categories_nodes":[],"categories_segments":[],"categories_sizes":[],"default_left":[0,0,0,0,0,0,0,0,0,0,0,0,0,0,0],"id":8,"left_children":[1,3,5,7,9,11,13,-1,-1,-1,-1,-1,-1,-1,-1],"loss_changes":[4.301439E1,9.860794E0,1.0408827E1,5.729292E0,3.3378108E0,1.4906969E0,1.5052814E0,0E0,0E0,0E0,0E0,0E0,0E0,0E0,0E0],"parents":[2147483647,0,0,1,1,2,2,3,3,4,4,5,5,6,6],"right_children":[2,4,6,8,10,12,14,-1,-1,-1,-1,-1,-1,-1,-1],"split_conditions":[4.2477056E3,1.3714911E3,1.2802019E4,4.2E1,4.347974E2,8.874775E3,3.849435E2,-7.0611544E-2,5.697281E-2,-2.115999E-2,4.5510795E-2,1.1206949E-2,3.1720266E-2,4.512545E-2,8.609291E-2],"split_indices":[1,1,1,0,2,1,2,0,0,0,0,0,0,0,0],"split_type":[0,0,0,0,0,0,0,0,0,0,0,0,0,0,0],"sum_hessian":[3.7629944E2,1.7033563E2,2.0596382E2,7.1863495E1,9.847213E1,1.5793279E2,4.803103E1,6.88756E1,2.9878957E0,9.123107E1,7.241053E0,1.0347219E2,5.4460598E1,1.8706207E1,2.9324821E1],"tree_param":{"num_deleted":"0","num_feature":"3","num_nodes":"15","size_leaf_vector":"1"}},{"base_weights":[4.035795E-3,-3.8065395E-1,2.5107276E-1,-4.6646297E-1,2.8067026E-1,1.0807337E-1,5.71489E-1,-5.3068485E-2,4.041709E-2,8.261734E-2,1.2342829E-2,9.908183E-2,7.5085633E-3,2.4418198E-2,8.536997E-2],"categories":[],"categories_nodes":[],"categories_segments":[],"categories_sizes":[],"default_left":[0,0,0,0,0,0,0,0,0,0,0,0,0,0,0],"id":9,"left_children":[1,3,5,7,9,11,13,-1,-1,-1,-1,-1,-1,-1,-1],"loss_changes":[3.5609497E1,8.446373E0,1.0392772E1,7.487751E0,1.3951545E0,4.5554776E0,6.2735157E0,0E0,0E0,0E0,0E0,0E0,0E0,0E0,0E0],"parents":[2147483647,0,0,1,1,2,2,3,3,4,4,5,5,6,6],"right_children":[2,4,6,8,10,12,14,-1,-1,-1,-1,-1,-1,-1,-1],"split_conditions":[3.432437E3,3.849435E2,1.0990738E4,4.2E1,4.1268515E2,3.5767173E3,3.849435E2,-5.3068485E-2,4.041709E-2,8.261734E-2,1.2342829E-2,9.908183E-2,7.5085633E-3,2.4418198E-2,8.536997E-2],"split_indices":[1,2,1,0,2,1,2,0,0,0,0,0,0,0,0],"split_type":[0,0,0,0,0,0,0,0,0,0,0,0,0,0,0],"sum_hessian":[3.7270264E2,1.45534E2,2.2716866E2,1.2908008E2,1.6453922E1,1.5799428E2,6.917438E1,1.20576294E2,8.503787E0,2.7297459E0,1.3724175E1,4.6455073E0,1.5334877E2,3.2891815E1,3.6282566E1],"tree_param":{"num_deleted":"0","num_feature":"3","num_nodes":"15","size_leaf_vector":"1"}},{"base_weights":[4.485117E-3,-2.7446595E-1,2.9783958E-1,-9.0119785E-1,-1.2476817E-1,1.7775103E-1,7.875658E-1,-5.6994338E-2,-1.09204374E-1,-2.0473355E-2,2.341123E-2,-8.924029E-3,2.4601294E-2,6.307382E-2,9.916847E-2],"categories":[],"categories_nodes":[],"categories_segments":[],"categories_sizes":[],"default_left":[0,0,0,0,0,0,0,0,0,0,0,0,0,0,0],"id":10,"left_children":[1,3,5,7,9,11,13,-1,-1,-1,-1,-1,-1,-1,-1],"loss_changes":[3.0362024E1,1.773151E1,1.0495253E1,1.6856422E0,4.4870462E0,2.692306E0,5.05167E-1,0E0,0E0,0E0,0E0,0E0,0E0,0E0,0E0],"parents":[2147483647,0,0,1,1,2,2,3,3,4,4,5,5,6,6],"right_children":[2,4,6,8,10,12,14,-1,-1,-1,-1,-1,-1,-1,-1],"split_conditions":[2.6E1,9.90522E1,3.849435E2,4.7551544E1,4.3365833E2,3.476432E3,1.7436842E4,-5.6994338E-2,-1.09204374E-1,-2.0473355E-2,2.341123E-2,-8.924029E-3,2.4601294E-2,6.307382E-2,9.916847E-2],"split_indices":[0,2,2,2,2,1,1,0,0,0,0,0,0,0,0],"split_type":[0,0,0,0,0,0,0,0,0,0,0,0,0,0,0],"sum_hessian":[3.6903186E2,1.891927E2,1.7983916E2,3.5508984E1,1.5368372E2,1.4551866E2,3.4320496E1,1.443694E1,2.1072042E1,1.2603112E2,2.7652603E1,2.9566917E1,1.1595175E2,2.1721552E1,1.2598945E1],"tree_param":{"num_deleted":"0","num_feature":"3","num_nodes":"15","size_leaf_vector":"1"}},{"base_weights":[4.1067167E-3,-2.502907E-1,2.719988E-1,-6.699784E-1,-5.1828746E-2,1.6072169E-1,7.4029994E-1,-9.182495E-2,-1.517678E-2,4.149065E-2,-1.1445264E-2,1.175822E-2,5.887854E-2,5.8540445E-2,9.485592E-2],"categories":[],"categories_nodes":[],"categories_segments":[],"categories_sizes":[],"default_left":[0,0,0,0,0,0,0,0,0,0,0,0,0,0,0],"id":11,"left_children":[1,3,5,7,9,11,13,-1,-1,-1,-1,-1,-1,-1,-1],"loss_changes":[2.5057041E1,1.5673557E1,9.212957E0,7.639921E0,3.8217242E0,2.6263626E0,5.448799E-1,0E0,0E0,0E0,0E0,0E0,0E0,0E0,0E0],"parents":[2147483647,0,0,1,1,2,2,3,3,4,4,5,5,6,6],"right_children":[2,4,6,8,10,12,14,-1,-1,-1,-1,-1,-1,-1,-1],"split_conditions":[2.6E1,1.7189992E2,3.849435E2,1.4731312E3,2.0719885E2,4.8E1,1.7436842E4,-9.182495E-2,-1.517678E-2,4.149065E-2,-1.1445264E-2,1.175822E-2,5.887854E-2,5.8540445E-2,9.485592E-2],"split_indices":[0,2,2,1,2,0,1,0,0,0,0,0,0,0,0],"split_type":[0,0,0,0,0,0,0,0,0,0,0,0,0,0,0],"sum_hessian":[3.6567023E2,1.8759282E2,1.7807742E2,5.946541E1,1.2812741E2,1.4497246E2,3.310496E1,3.9682053E1,1.9783356E1,1.4492157E1,1.13635254E2,1.3285796E2,1.2114499E1,2.1170256E1,1.1934707E1],"tree_param":{"num_deleted":"0","num_feature":"3","num_nodes":"15","size_leaf_vector":"1"}},{"base_weights":[4.0704464E-3,-2.6460508E-1,2.2428152E-1,-4.946999E-1,-1.0249589E-1,1.3305937E-1,5.4576486E-1,-5.8273535E-2,2.3977438E-2,-2.318809E-2,1.3106178E-2,1.8377708E-2,-5.715906E-3,3.739133E-2,8.4418125E-2],"categories":[],"categories_nodes":[],"categories_segments":[],"categories_sizes":[],"default_left":[0,0,0,0,0,0,0,0,0,0,0,0,0,0,0],"id":12,"left_children":[1,3,5,7,9,11,13,-1,-1,-1,-1,-1,-1,-1,-1],"loss_changes":[2.1575483E1,6.0764246E0,5.804307E0,4.512909E0,2.980669E0,1.5292516E0,1.9393959E0,0E0,0E0,0E0,0E0,0E0,0E0,0E0,0E0],"parents":[2147483647,0,0,1,1,2,2,3,3,4,4,5,5,6,6],"right_children":[2,4,6,8,10,12,14,-1,-1,-1,-1,-1,-1,-1,-1],"split_conditions":[4.2477056E3,1.3714911E3,1.2802019E4,3.849435E2,2.2E1,3.9E1,4.5E1,-5.8273535E-2,2.3977438E-2,-2.318809E-2,1.3106178E-2,1.8377708E-2,-5.715906E-3,3.739133E-2,8.4418125E-2],"split_indices":[1,1,1,2,0,0,0,0,0,0,0,0,0,0,0],"split_type":[0,0,0,0,0,0,0,0,0,0,0,0,0,0,0],"sum_hessian":[3.6266125E2,1.632641E2,1.9939714E2,6.663374E1,9.6630356E1,1.5642487E2,4.297228E1,5.9686234E1,6.9475064E0,6.2187336E1,3.444302E1,1.2352375E2,3.2901123E1,2.8698448E1,1.42738285E1],"tree_param":{"num_deleted":"0","num_feature":"3","num_nodes":"15","size_leaf_vector":"1"}},{"base_weights":[3.9157784E-3,-2.141035E-1,2.332589E-1,-7.6178515E-1,-9.334302E-2,1.3433024E-1,6.709422E-1,-4.177527E-2,-9.665065E-2,-1.6298568E-2,2.1555139E-2,9.579356E-3,5.244218E-2,5.2098334E-2,9.017118E-2],"categories":[],"categories_nodes":[],"categories_segments":[],"categories_sizes":[],"default_left":[0,0,0,0,0,0,0,0,0,0,0,0,0,0,0],"id":13,"left_children":[1,3,5,7,9,11,13,-1,-1,-1,-1,-1,-1,-1,-1],"loss_changes":[1.8080832E1,1.2190263E1,7.540057E0,1.9453049E0,3.3272986E0,2.1292555E0,6.458168E-1,0E0,0E0,0E0,0E0,0E0,0E0,0E0,0E0],"parents":[2147483647,0,0,1,1,2,2,3,3,4,4,5,5,6,6],"right_children":[2,4,6,8,10,12,14,-1,-1,-1,-1,-1,-1,-1,-1],"split_conditions":[2.6E1,9.90522E1,3.849435E2,4.7551544E1,4.3365833E2,4.8E1,4.5461627E2,-4.177527E-2,-9.665065E-2,-1.6298568E-2,2.1555139E-2,9.579356E-3,5.244218E-2,5.2098334E-2,9.017118E-2],"split_indices":[0,2,2,2,2,0,2,0,0,0,0,0,0,0,0],"split_type":[0,0,0,0,0,0,0,0,0,0,0,0,0,0,0],"sum_hessian":[3.5960898E2,1.8438983E2,1.7521913E2,3.235281E1,1.5203703E2,1.4398207E2,3.123706E1,1.3204072E1,1.9148739E1,1.2445095E2,2.7586079E1,1.3217065E2,1.1811418E1,2.0908125E1,1.0328936E1],"tree_param":{"num_deleted":"0","num_feature":"3","num_nodes":"15","size_leaf_vector":"1"}},{"base_weights":[3.7354939E-3,-2.245479E-1,1.8974204E-1,-7.1587944E-1,-1.5642178E-1,1.1270363E-1,4.7380504E-1,-8.741239E-2,-2.872823E-2,5.1006783E-2,-1.9637235E-2,1.6127395E-2,-6.8647116E-3,3.0570898E-2,7.7247046E-2],"categories":[],"categories_nodes":[],"categories_segments":[],"categories_sizes":[],"default_left":[0,0,0,0,0,0,0,0,0,0,0,0,0,0,0],"id":14,"left_children":[1,3,5,7,9,11,13,-1,-1,-1,-1,-1,-1,-1,-1],"loss_changes":[1.5234095E1,5.279978E0,4.2725573E0,1.060317E0,3.901116E0,1.3923614E0,1.8654718E0,0E0,0E0,0E0,0E0,0E0,0E0,0E0,0E0],"parents":[2147483647,0,0,1,1,2,2,3,3,4,4,5,5,6,6],"right_children":[2,4,6,8,10,12,14,-1,-1,-1,-1,-1,-1,-1,-1],"split_conditions":[4.2477056E3,4.322538E2,1.2802019E4,1.366315E2,2.8610966E1,3.9E1,4.5E1,-8.741239E-2,-2.872823E-2,5.1006783E-2,-1.9637235E-2,1.6127395E-2,-6.8647116E-3,3.0570898E-2,7.7247046E-2],"split_indices":[1,1,1,2,2,0,0,0,0,0,0,0,0,0,0],"split_type":[0,0,0,0,0,0,0,0,0,0,0,0,0,0,0],"sum_hessian":[3.5676498E2,1.6008615E2,1.9667882E2,1.8336136E1,1.4175002E2,1.5581757E2,4.0861256E1,1.2632522E1,5.703614E0,7.350765E0,1.3439925E2,1.2298877E2,3.2828796E1,2.7440605E1,1.342065E1],"tree_param":{"num_deleted":"0","num_feature":"3","num_nodes":"15","size_leaf_vector":"1"}},{"base_weights":[3.4602294E-3,-4.122109E-1,9.504019E-2,-4.9461478E-1,2.3521683E-1,8.594477E-3,3.4123093E-1,-8.250825E-3,-6.701687E-2,1.0547983E-1,-1.1467953E-2,-7.362648E-4,5.3018328E-2,1.5377524E-2,5.579656E-2],"categories":[],"categories_nodes":[],"categories_segments":[],"categories_sizes":[],"default_left":[0,0,0,0,0,0,0,0,0,0,0,0,0,0,0],"id":15,"left_children":[1,3,5,7,9,11,13,-1,-1,-1,-1,-1,-1,-1,-1],"loss_changes":[1.3568149E1,3.5495281E0,6.212433E0,4.097992E0,2.3989124E0,1.8114628E0,2.996706E0,0E0,0E0,0E0,0E0,0E0,0E0,0E0,0E0],"parents":[2147483647,0,0,1,1,2,2,3,3,4,4,5,5,6,6],"right_children":[2,4,6,8,10,12,14,-1,-1,-1,-1,-1,-1,-1,-1],"split_conditions":[1.3714911E3,3.849435E2,1.0068227E4,3.4739582E1,4.0605496E2,4.78354E2,3.849435E2,-8.250825E-3,-6.701687E-2,1.0547983E-1,-1.1467953E-2,-7.362648E-4,5.3018328E-2,1.5377524E-2,5.579656E-2],"split_indices":[1,2,1,2,2,2,2,0,0,0,0,0,0,0,0],"split_type":[0,0,0,0,0,0,0,0,0,0,0,0,0,0,0],"sum_hessian":[3.543976E2,6.335144E1,2.9104617E2,5.6407932E1,6.943509E0,2.1617491E2,7.4871254E1,1.729008E1,3.9117855E1,1.4746809E0,5.468828E0,2.1071436E2,5.460564E0,4.1064083E1,3.380717E1],"tree_param":{"num_deleted":"0","num_feature":"3","num_nodes":"15","size_leaf_vector":"1"}},{"base_weights":[3.5025876E-3,-1.7466837E-1,1.9066904E-1,-6.674986E-1,-7.2522365E-2,1.1064286E-1,5.721408E-1,-3.308494E-2,-8.7606154E-2,-1.2951881E-2,1.7829994E-2,7.6176035E-3,4.6663914E-2,4.1937392E-2,8.2094766E-2],"categories":[],"categories_nodes":[],"categories_segments":[],"categories_sizes":[],"default_left":[0,0,0,0,0,0,0,0,0,0,0,0,0,0,0],"id":16,"left_children":[1,3,5,7,9,11,13,-1,-1,-1,-1,-1,-1,-1,-1],"loss_changes":[1.1801066E1,9.078705E0,5.205002E0,1.8871012E0,2.1861036E0,1.729979E0,7.8404903E-1,0E0,0E0,0E0,0E0,0E0,0E0,0E0,0E0],"parents":[2147483647,0,0,1,1,2,2,3,3,4,4,5,5,6,6],"right_children":[2,4,6,8,10,12,14,-1,-1,-1,-1,-1,-1,-1,-1],"split_conditions":[2.6E1,9.90522E1,3.849435E2,4.7551544E1,4.3365833E2,4.8E1,4.5461627E2,-3.308494E-2,-8.7606154E-2,-1.2951881E-2,1.7829994E-2,7.6176035E-3,4.6663914E-2,4.1937392E-2,8.2094766E-2],"split_indices":[0,2,2,2,2,0,2,0,0,0,0,0,0,0,0],"split_type":[0,0,0,0,0,0,0,0,0,0,0,0,0,0,0],"sum_hessian":[3.5188153E2,1.8030705E2,1.7157446E2,3.0005056E1,1.50302E2,1.4288889E2,2.868558E1,1.246736E1,1.7537695E1,1.228658E2,2.7436201E1,1.3138266E2,1.1506221E1,1.9436903E1,9.248676E0],"tree_param":{"num_deleted":"0","num_feature":"3","num_nodes":"15","size_leaf_vector":"1"}},{"base_weights":[3.3338356E-3,-3.5903615E-1,8.108872E-2,-5.182115E-1,-3.3256877E-2,-2.7555551E-2,2.1785171E-1,-1.07387975E-2,-9.009162E-2,2.884292E-2,-2.730276E-2,-5.0825747E-3,6.927E-2,-6.897079E-2,2.5398085E-2],"categories":[],"categories_nodes":[],"categories_segments":[],"categories_sizes":[],"default_left":[0,0,0,0,0,0,0,0,0,0,0,0,0,0,0],"id":17,"left_children":[1,3,5,7,9,11,13,-1,-1,-1,-1,-1,-1,-1,-1],"loss_changes":[9.9011965E0,3.2021341E0,4.3044043E0,6.449586E0,1.732887E0,2.7521727E0,4.378219E0,0E0,0E0,0E0,0E0,0E0,0E0,0E0,0E0],"parents":[2147483647,0,0,1,1,2,2,3,3,4,4,5,5,6,6],"right_children":[2,4,6,8,10,12,14,-1,-1,-1,-1,-1,-1,-1,-1],"split_conditions":[1.3714911E3,1.7189992E2,7.0512427E3,4.3875065E1,6.713917E2,4.8E1,1.9E1,-1.07387975E-2,-9.009162E-2,2.884292E-2,-2.730276E-2,-5.0825747E-3,6.927E-2,-6.897079E-2,2.5398085E-2],"split_indices":[1,2,1,2,1,0,0,0,0,0,0,0,0,0,0],"split_type":[0,0,0,0,0,0,0,0,0,0,0,0,0,0,0],"sum_hessian":[3.4937158E2,6.1082817E1,2.8828876E2,4.0636967E1,2.0445852E1,1.6110542E2,1.2718334E2,2.0216106E1,2.0420858E1,8.644758E0,1.1801094E1,1.5696364E2,4.141786E0,4.1766367E0,1.2300671E2],"tree_param":{"num_deleted":"0","num_feature":"3","num_nodes":"15","size_leaf_vector":"1"}},{"base_weights":[2.7004147E-3,-1.4766802E-1,1.6048457E-1,-5.994057E-1,-5.88745E-2,8.813516E-2,5.1938033E-1,-2.9169394E-2,-8.005552E-2,-1.102923E-2,1.6639357E-2,1.09279035E-2,-4.6651226E-2,3.612092E-2,7.6924354E-2],"categories":[],"categories_nodes":[],"categories_segments":[],"categories_sizes":[],"default_left":[0,0,0,0,0,0,0,0,0,0,0,0,0,0,0],"id":18,"left_children":[1,3,5,7,9,11,13,-1,-1,-1,-1,-1,-1,-1,-1],"loss_changes":[8.283349E0,7.1356115E0,4.377654E0,1.5774736E0,1.761749E0,1.7277566E0,8.4359074E-1,0E0,0E0,0E0,0E0,0E0,0E0,0E0,0E0],"parents":[2147483647,0,0,1,1,2,2,3,3,4,4,5,5,6,6],"right_children":[2,4,6,8,10,12,14,-1,-1,-1,-1,-1,-1,-1,-1],"split_conditions":[2.6E1,9.90522E1,3.849435E2,4.7551544E1,4.3365833E2,3.7469675E2,1.7436842E4,-2.9169394E-2,-8.005552E-2,-1.102923E-2,1.6639357E-2,1.09279035E-2,-4.6651226E-2,3.612092E-2,7.6924354E-2],"split_indices":[0,2,2,2,2,2,1,0,0,0,0,0,0,0,0],"split_type":[0,0,0,0,0,0,0,0,0,0,0,0,0,0,0],"sum_hessian":[3.4713013E2,1.7777475E2,1.6935538E2,2.8258562E1,1.4951619E2,1.4197946E2,2.7375916E1,1.2138944E1,1.6119617E1,1.2214646E2,2.7369732E1,1.3753926E2,4.440198E0,1.8261473E1,9.114443E0],"tree_param":{"num_deleted":"0","num_feature":"3","num_nodes":"15","size_leaf_vector":"1"}},{"base_weights":[2.3550305E-3,-3.1448525E-1,6.877761E-2,-3.541461E-1,7.452258E-2,4.4008095E-2,5.5124325E-1,-5.289352E-2,-2.4054197E-3,-7.1295844E-3,1.0686729E-2,-2.2737255E-2,6.8109214E-2],"categories":[],"categories_nodes":[],"categories_segments":[],"categories_sizes":[],"default_left":[0,0,0,0,0,0,0,0,0,0,0,0,0],"id":19,"left_children":[1,3,5,7,-1,9,11,-1,-1,-1,-1,-1,-1],"loss_changes":[7.3028984E0,2.7915716E0,3.4035974E0,3.371108E0,0E0,1.9929605E0,1.5622373E0,0E0,0E0,0E0,0E0,0E0,0E0],"parents":[2147483647,0,0,1,1,2,2,3,3,5,5,6,6],"right_children":[2,4,6,8,-1,10,12,-1,-1,-1,-1,-1,-1],"split_conditions":[1.3714911E3,4.5E1,1.6761055E4,1.7189992E2,7.452258E-2,2.2E1,3.836166E2,-5.289352E-2,-2.4054197E-3,-7.1295844E-3,1.0686729E-2,-2.2737255E-2,6.8109214E-2],"split_indices":[1,0,1,2,0,0,2,0,0,0,0,0,0],"split_type":[0,0,0,0,0,0,0,0,0,0,0,0,0],"sum_hessian":[3.4497995E2,5.9140606E1,2.8583936E2,5.764884E1,1.4917629E0,2.7291907E2,1.2920298E1,3.729705E1,2.0351791E1,9.6243454E1,1.7667561E2,1.7393773E0,1.1180921E1],"tree_param":{"num_deleted":"0","num_feature":"3","num_nodes":"13","size_leaf_vector":"1"}},{"base_weights":[2.3063538E-3,-2.882775E-1,6.2337592E-2,-3.3812836E-1,4.8720312E-1,4.3278128E-2,6.18471E-1,-5.1744312E-2,-2.1776175E-3,7.7020675E-3,7.027676E-2,-6.4302147E-3,1.0066778E-2,2.937517E-2,7.763821E-2],"categories":[],"categories_nodes":[],"categories_segments":[],"categories_sizes":[],"default_left":[0,0,0,0,0,0,0,0,0,0,0,0,0,0,0],"id":20,"left_children":[1,3,5,7,9,11,13,-1,-1,-1,-1,-1,-1,-1,-1],"loss_changes":[6.0186505E0,2.4484997E0,3.003864E0,3.1709576E0,2.97602E-1,1.7198817E0,2.538824E-1,0E0,0E0,0E0,0E0,0E0,0E0,0E0,0E0],"parents":[2147483647,0,0,1,1,2,2,3,3,4,4,5,5,6,6],"right_children":[2,4,6,8,10,12,14,-1,-1,-1,-1,-1,-1,-1,-1],"split_conditions":[1.3714911E3,4.2E1,1.7888596E4,1.7189992E2,4.5E1,2.2E1,4.4828174E2,-5.1744312E-2,-2.1776175E-3,7.7020675E-3,7.027676E-2,-6.4302147E-3,1.0066778E-2,2.937517E-2,7.763821E-2],"split_indices":[1,0,1,2,0,0,2,0,0,0,0,0,0,0,0],"split_type":[0,0,0,0,0,0,0,0,0,0,0,0,0,0,0],"sum_hessian":[3.4299463E2,5.8075497E1,2.8491913E2,5.5097588E1,2.9779077E0,2.7652023E2,8.398912E0,3.4759537E1,2.0338053E1,1.4934413E0,1.4844664E0,9.615382E1,1.8036641E2,3.6838622E0,4.71505E0],"tree_param":{"num_deleted":"0","num_feature":"3","num_nodes":"15","size_leaf_vector":"1"}},{"base_weights":[2.4419625E-3,-5.490859E-1,3.076301E-2,-6.960392E-1,-2.010981E-1,-7.336973E-2,1.3058892E-1,-1.4647725E-2,-7.9555705E-2,1.4880008E-2,-4.79698E-2,-3.0161608E-2,2.4370454E-5,6.901392E-3,4.4226684E-2],"categories":[],"categories_nodes":[],"categories_segments":[],"categories_sizes":[],"default_left":[0,0,0,0,0,0,0,0,0,0,0,0,0,0,0],"id":21,"left_children":[1,3,5,7,9,11,13,-1,-1,-1,-1,-1,-1,-1,-1],"loss_changes":[5.361828E0,7.1742153E-1,3.40279E0,5.059581E-1,6.937399E-1,2.6951997E0,3.174803E0,0E0,0E0,0E0,0E0,0E0,0E0,0E0,0E0],"parents":[2147483647,0,0,1,1,2,2,3,3,4,4,5,5,6,6],"right_children":[2,4,6,8,10,12,14,-1,-1,-1,-1,-1,-1,-1,-1],"split_conditions":[4.322538E2,1.366315E2,2.6E1,9.513877E1,2.0255737E2,1.7189992E2,3.836166E2,-1.4647725E-2,-7.9555705E-2,1.4880008E-2,-4.79698E-2,-3.0161608E-2,2.4370454E-5,6.901392E-3,4.4226684E-2],"split_indices":[1,2,0,1,2,2,2,0,0,0,0,0,0,0,0],"split_type":[0,0,0,0,0,0,0,0,0,0,0,0,0,0,0],"sum_hessian":[3.4118878E2,1.5766276E1,3.2542252E2,1.0381884E1,5.3843927E0,1.5940512E2,1.6601738E2,1.9707558E0,8.411128E0,2.5933113E0,2.7910814E0,3.811821E1,1.2128691E2,1.3964966E2,2.636772E1],"tree_param":{"num_deleted":"0","num_feature":"3","num_nodes":"15","size_leaf_vector":"1"}},{"base_weights":[1.8704569E-3,-5.1614E-1,2.7893292E-2,-6.605981E-1,-1.8666741E-1,7.869477E-1,1.4250698E-2,-1.3763259E-2,-7.586997E-2,1.372865E-2,-4.4829607E-2,3.8315173E-2,9.920681E-2,-6.946026E-3,1.4745486E-2],"categories":[],"categories_nodes":[],"categories_segments":[],"categories_sizes":[],"default_left":[0,0,0,0,0,0,0,0,0,0,0,0,0,0,0],"id":22,"left_children":[1,3,5,7,9,11,13,-1,-1,-1,-1,-1,-1,-1,-1],"loss_changes":[4.6027174E0,6.54037E-1,3.3547769E0,4.578886E-1,6.0162354E-1,9.369683E-2,3.5820646E0,0E0,0E0,0E0,0E0,0E0,0E0,0E0,0E0],"parents":[2147483647,0,0,1,1,2,2,3,3,4,4,5,5,6,6],"right_children":[2,4,6,8,10,12,14,-1,-1,-1,-1,-1,-1,-1,-1],"split_conditions":[4.322538E2,1.366315E2,4.9860715E2,9.513877E1,2.0255737E2,1.2E1,7.0512427E3,-1.3763259E-2,-7.586997E-2,1.372865E-2,-4.4829607E-2,3.8315173E-2,9.920681E-2,-6.946026E-3,1.4745486E-2],"split_indices":[1,2,1,1,2,0,1,0,0,0,0,0,0,0,0],"split_type":[0,0,0,0,0,0,0,0,0,0,0,0,0,0,0],"sum_hessian":[3.393773E2,1.5332597E1,3.240447E2,9.960411E0,5.372185E0,4.720486E0,3.1932422E2,1.9528747E0,8.007536E0,2.6125433E0,2.7596421E0,2.556246E0,2.1642401E0,1.9638585E2,1.2293838E2],"tree_param":{"num_deleted":"0","num_feature":"3","num_nodes":"15","size_leaf_vector":"1"}},{"base_weights":[1.7096339E-3,-1.6497353E-1,7.313295E-2,-7.6630414E-1,-4.1386165E-2,2.5276056E-1,2.0151312E-2,-2.3562523E-2,-8.712528E-2,1.9150481E-3,-5.699745E-2,1.537247E-2,9.1420434E-2,-4.445912E-2,7.1106898E-3],"categories":[],"categories_nodes":[],"categories_segments":[],"categories_sizes":[],"default_left":[0,0,0,0,0,0,0,0,0,0,0,0,0,0,0],"id":23,"left_children":[1,3,5,7,9,11,13,-1,-1,-1,-1,-1,-1,-1,-1],"loss_changes":[4.051438E0,7.5548825E0,2.2619832E0,7.6081944E-1,2.7544334E0,3.4080691E0,4.413648E0,0E0,0E0,0E0,0E0,0E0,0E0,0E0,0E0],"parents":[2147483647,0,0,1,1,2,2,3,3,4,4,5,5,6,6],"right_children":[2,4,6,8,10,12,14,-1,-1,-1,-1,-1,-1,-1,-1],"split_conditions":[1.6732974E2,1.2E1,2.3624908E2,3.25678E1,1.5208536E2,2.2872064E2,2.649453E2,-2.3562523E-2,-8.712528E-2,1.9150481E-3,-5.699745E-2,1.537247E-2,9.1420434E-2,-4.445912E-2,7.1106898E-3],"split_indices":[2,0,2,2,2,2,2,0,0,0,0,0,0,0,0],"split_type":[0,0,0,0,0,0,0,0,0,0,0,0,0,0,0],"sum_hessian":[3.3829868E2,1.0108445E2,2.3721423E2,1.6346739E1,8.473772E1,5.3171658E1,1.8404257E2,3.2348208E0,1.31119175E1,7.6895065E1,7.842647E0,4.7319122E1,5.852534E0,1.7421747E1,1.6662083E2],"tree_param":{"num_deleted":"0","num_feature":"3","num_nodes":"15","size_leaf_vector":"1"}},{"base_weights":[1.1732397E-3,-2.3427564E-1,4.7826048E-2,-3.4008306E-2,-6.289739E-1,6.129561E-1,2.7005885E-2,-1.2485574E-2,1.1741928E-1,-7.8466274E-2,1.2725058E-2,-2.7064586E-3,1.1450344E-1,-5.305574E-2,4.6172217E-3],"categories":[],"categories_nodes":[],"categories_segments":[],"categories_sizes":[],"default_left":[0,0,0,0,0,0,0,0,0,0,0,0,0,0,0],"id":24,"left_children":[1,3,5,7,9,11,13,-1,-1,-1,-1,-1,-1,-1,-1],"loss_changes":[3.728299E0,4.4156184E0,3.316389E0,4.349975E0,2.3176656E0,3.4428794E0,2.9552271E0,0E0,0E0,0E0,0E0,0E0,0E0,0E0,0E0],"parents":[2147483647,0,0,1,1,2,2,3,3,4,4,5,5,6,6],"right_children":[2,4,6,8,10,12,14,-1,-1,-1,-1,-1,-1,-1,-1],"split_conditions":[9.90522E1,7.02557E1,1.15865166E2,2.5013364E3,3.432437E3,2.1E1,1.23950165E2,-1.2485574E-2,1.1741928E-1,-7.8466274E-2,1.2725058E-2,-2.7064586E-3,1.1450344E-1,-5.305574E-2,4.6172217E-3],"split_indices":[2,2,2,1,1,0,2,0,0,0,0,0,0,0,0],"split_type":[0,0,0,0,0,0,0,0,0,0,0,0,0,0,0],"sum_hessian":[3.373991E2,5.5132576E1,2.8226654E2,3.729533E1,1.7837244E1,9.019024E0,2.732475E2,3.552108E1,1.774252E0,1.4760749E1,3.076496E0,4.5250793E0,4.4939446E0,8.194067E0,2.6505344E2],"tree_param":{"num_deleted":"0","num_feature":"3","num_nodes":"15","size_leaf_vector":"1"}},{"base_weights":[1.3005462E-3,-1.5212981E-1,7.2563365E-2,-5.2424335E-1,-4.0257894E-2,5.717997E-2,9.48135E-2,-7.305626E-2,-8.427723E-3,2.2606023E-2,-1.9516012E-2,4.7990028E-2,4.0292004E-3],"categories":[],"categories_nodes":[],"categories_segments":[],"categories_sizes":[],"default_left":[0,0,0,0,0,0,0,0,0,0,0,0,0],"id":25,"left_children":[1,3,5,7,9,11,-1,-1,-1,-1,-1,-1,-1],"loss_changes":[3.7015893E0,4.448763E0,3.0593379E0,2.1837993E0,3.4944491E0,1.6099908E0,0E0,0E0,0E0,0E0,0E0,0E0,0E0],"parents":[2147483647,0,0,1,1,2,2,3,3,4,4,5,5],"right_children":[2,4,6,8,10,12,-1,-1,-1,-1,-1,-1,-1],"split_conditions":[1.7E1,1.7189992E2,4.9080582E2,1.2E1,1.8820963E3,1.8E1,9.48135E-2,-7.305626E-2,-8.427723E-3,2.2606023E-2,-1.9516012E-2,4.7990028E-2,4.0292004E-3],"split_indices":[0,2,2,0,1,0,0,0,0,0,0,0,0],"split_type":[0,0,0,0,0,0,0,0,0,0,0,0,0],"sum_hessian":[3.3653345E2,1.0637375E2,2.3015971E2,2.3735971E1,8.263777E1,2.2723264E2,2.9270692E0,1.5708893E1,8.027079E0,3.0220802E1,5.2416973E1,7.6761174E0,2.1955652E2],"tree_param":{"num_deleted":"0","num_feature":"3","num_nodes":"13","size_leaf_vector":"1"}},{"base_weights":[1.3071576E-3,-4.3997124E-1,2.2037817E-2,-4.9435422E-1,4.8624077E-3,7.503538E-2,8.824768E-3,-4.4805426E-3,-5.5703677E-2,-2.5173608E-2,4.2509683E-3],"categories":[],"categories_nodes":[],"categories_segments":[],"categories_sizes":[],"default_left":[0,0,0,0,0,0,0,0,0,0,0],"id":26,"left_children":[1,3,5,7,-1,-1,9,-1,-1,-1,-1],"loss_changes":[3.0886562E0,4.265902E-1,3.0961366E0,3.6171532E-1,0E0,0E0,2.799049E0,0E0,0E0,0E0,0E0],"parents":[2147483647,0,0,1,1,2,2,3,3,6,6],"right_children":[2,4,6,8,-1,-1,10,-1,-1,-1,-1],"split_conditions":[4.322538E2,3.248622E2,4.9860715E2,9.513877E1,4.8624077E-3,7.503538E-2,1.3714911E3,-4.4805426E-3,-5.5703677E-2,-2.5173608E-2,4.2509683E-3],"split_indices":[1,2,1,1,0,0,1,0,0,0,0],"split_type":[0,0,0,0,0,0,0,0,0,0,0],"sum_hessian":[3.3557224E2,1.4149924E1,3.214223E2,1.2722107E1,1.4278178E0,4.7332315E0,3.166891E2,1.7666669E0,1.095544E1,3.551315E1,2.8117593E2],"tree_param":{"num_deleted":"0","num_feature":"3","num_nodes":"11","size_leaf_vector":"1"}},{"base_weights":[1.1184536E-3,-8.9686394E-2,9.5566444E-2,-4.0168983E-1,-3.762664E-2,6.584382E-2,6.583613E-1,-6.006794E-3,-6.443096E-2,1.1853276E-2,-1.10858735E-2,8.22706E-3,-7.8635685E-2,8.93594E-2,3.3679083E-2],"categories":[],"categories_nodes":[],"categories_segments":[],"categories_sizes":[],"default_left":[0,0,0,0,0,0,0,0,0,0,0,0,0,0,0],"id":27,"left_children":[1,3,5,7,9,11,13,-1,-1,-1,-1,-1,-1,-1,-1],"loss_changes":[2.8885393E0,2.7741005E0,2.7181373E0,1.9879804E0,1.7087135E0,2.2753203E0,3.1705952E-1,0E0,0E0,0E0,0E0,0E0,0E0,0E0,0E0],"parents":[2147483647,0,0,1,1,2,2,3,3,4,4,5,5,6,6],"right_children":[2,4,6,8,10,12,14,-1,-1,-1,-1,-1,-1,-1,-1],"split_conditions":[2.6E1,9.90522E1,4.5461627E2,4.7551544E1,2.3624908E2,4.4395367E2,4.8121622E2,-6.006794E-3,-6.443096E-2,1.1853276E-2,-1.10858735E-2,8.22706E-3,-7.8635685E-2,8.93594E-2,3.3679083E-2],"split_indices":[0,2,2,2,2,2,2,0,0,0,0,0,0,0,0],"split_type":[0,0,0,0,0,0,0,0,0,0,0,0,0,0,0],"sum_hessian":[3.3480405E2,1.7071983E2,1.6408423E2,2.3451979E1,1.4726785E2,1.5691418E2,7.1700435E0,1.0257057E1,1.3194921E1,4.681705E1,1.00450806E2,1.5483313E2,2.0810578E0,3.1135786E0,4.056465E0],"tree_param":{"num_deleted":"0","num_feature":"3","num_nodes":"15","size_leaf_vector":"1"}},{"base_weights":[9.4775733E-4,-1.2691104E-1,5.9831932E-2,-4.7263616E-1,-2.8336367E-2,4.5635343E-2,9.134703E-2,-6.748903E-2,-6.6337488E-3,2.1862354E-2,-1.7253293E-2,2.5230781E-3,3.8805112E-2],"categories":[],"categories_nodes":[],"categories_segments":[],"categories_sizes":[],"default_left":[0,0,0,0,0,0,0,0,0,0,0,0,0],"id":28,"left_children":[1,3,5,7,9,11,-1,-1,-1,-1,-1,-1,-1],"loss_changes":[2.5290923E0,3.5965126E0,2.7454553E0,1.881208E0,3.0107882E0,1.5781527E0,0E0,0E0,0E0,0E0,0E0,0E0,0E0],"parents":[2147483647,0,0,1,1,2,2,3,3,4,4,5,5],"right_children":[2,4,6,8,10,12,-1,-1,-1,-1,-1,-1,-1],"split_conditions":[1.7E1,1.7189992E2,4.9080582E2,1.2E1,1.8820963E3,4.8E1,9.134703E-2,-6.748903E-2,-6.6337488E-3,2.1862354E-2,-1.7253293E-2,2.5230781E-3,3.8805112E-2],"split_indices":[0,2,2,0,1,0,0,0,0,0,0,0,0],"split_type":[0,0,0,0,0,0,0,0,0,0,0,0,0],"sum_hessian":[3.3391113E2,1.0492526E2,2.2898589E2,2.2437355E1,8.248791E1,2.2627621E2,2.709668E0,1.4538879E1,7.8984747E0,3.0218203E1,5.2269703E1,2.1456403E2,1.171219E1],"tree_param":{"num_deleted":"0","num_feature":"3","num_nodes":"13","size_leaf_vector":"1"}},{"base_weights":[1.0017619E-3,-3.8629183E-1,1.8363688E-2,-4.3631786E-1,3.941867E-3,6.057013E-1,3.2624286E-3,1.5190803E-3,-5.0377425E-2,3.659473E-2,1.0023612E-1,-2.630258E-2,3.5015647E-3],"categories":[],"categories_nodes":[],"categories_segments":[],"categories_sizes":[],"default_left":[0,0,0,0,0,0,0,0,0,0,0,0,0],"id":29,"left_children":[1,3,5,7,-1,9,11,-1,-1,-1,-1,-1,-1],"loss_changes":[2.2520611E0,3.2323194E-1,2.8406727E0,4.0182376E-1,0E0,3.966968E-1,2.6597347E0,0E0,0E0,0E0,0E0,0E0,0E0],"parents":[2147483647,0,0,1,1,2,2,3,3,5,5,6,6],"right_children":[2,4,6,8,-1,10,12,-1,-1,-1,-1,-1,-1],"split_conditions":[4.322538E2,3.248622E2,5.41615E2,9.513877E1,3.941867E-3,4.3365833E2,1.3714911E3,1.5190803E-3,-5.0377425E-2,3.659473E-2,1.0023612E-1,-2.630258E-2,3.5015647E-3],"split_indices":[1,2,1,1,0,2,1,0,0,0,0,0,0],"split_type":[0,0,0,0,0,0,0,0,0,0,0,0,0],"sum_hessian":[3.328657E2,1.3370039E1,3.1949567E2,1.1941817E1,1.4282221E0,7.0284085E0,3.1246725E2,1.6529385E0,1.0288878E1,5.578908E0,1.4495006E0,3.2514168E1,2.799531E2],"tree_param":{"num_deleted":"0","num_feature":"3","num_nodes":"13","size_leaf_vector":"1"}},{"base_weights":[1.071116E-3,-1.1805085E-2,5.1304245E-1,-3.5945687E-1,3.838838E-3,7.920118E-2,2.6073438E-1,-4.801392E-2,-1.2464618E-2,5.5718567E-2,-1.0829683E-3,-3.6280043E-2,4.8182547E-2],"categories":[],"categories_nodes":[],"categories_segments":[],"categories_sizes":[],"default_left":[0,0,0,0,0,0,0,0,0,0,0,0,0],"id":30,"left_children":[1,3,5,7,9,-1,11,-1,-1,-1,-1,-1,-1],"loss_changes":[2.2022357E0,1.7741047E0,3.7035465E-1,3.3819103E-1,2.5458052E0,0E0,9.735868E-1,0E0,0E0,0E0,0E0,0E0,0E0],"parents":[2147483647,0,0,1,1,2,2,3,3,4,4,6,6],"right_children":[2,4,6,8,10,-1,12,-1,-1,-1,-1,-1,-1],"split_conditions":[1.7888596E4,4.322538E2,4.4E1,1.366315E2,5.41615E2,7.920118E-2,4.5E1,-4.801392E-2,-1.2464618E-2,5.5718567E-2,-1.0829683E-3,-3.6280043E-2,4.8182547E-2],"split_indices":[1,1,0,2,1,0,0,0,0,0,0,0,0],"split_type":[0,0,0,0,0,0,0,0,0,0,0,0,0],"sum_hessian":[3.321458E2,3.2495016E2,7.1956325E0,1.304635E1,3.119038E2,2.4014058E0,4.7942266E0,7.927283E0,5.119067E0,7.099546E0,3.0480426E2,1.0871694E0,3.707057E0],"tree_param":{"num_deleted":"0","num_feature":"3","num_nodes":"13","size_leaf_vector":"1"}},{"base_weights":[1.2190195E-3,-1.18056774E-1,5.071313E-2,-6.0645014E-1,-3.4934644E-2,2.0904008E-1,3.709302E-3,-3.575318E-3,-7.351576E-2,2.4482298E-3,-5.4732095E-2,3.2618966E-2,-2.7826441E-2,-4.177328E-2,5.0489753E-3],"categories":[],"categories_nodes":[],"categories_segments":[],"categories_sizes":[],"default_left":[0,0,0,0,0,0,0,0,0,0,0,0,0,0,0],"id":31,"left_children":[1,3,5,7,9,11,13,-1,-1,-1,-1,-1,-1,-1,-1],"loss_changes":[1.9703567E0,3.952537E0,1.7545298E0,1.0149298E0,2.592305E0,3.1721067E0,3.6268115E0,0E0,0E0,0E0,0E0,0E0,0E0,0E0,0E0],"parents":[2147483647,0,0,1,1,2,2,3,3,4,4,5,5,6,6],"right_children":[2,4,6,8,10,12,14,-1,-1,-1,-1,-1,-1,-1,-1],"split_conditions":[1.6732974E2,1.2E1,2.3624908E2,3.25678E1,1.5208536E2,7.9741895E3,2.649453E2,-3.575318E-3,-7.351576E-2,2.4482298E-3,-5.4732095E-2,3.2618966E-2,-2.7826441E-2,-4.177328E-2,5.0489753E-3],"split_indices":[2,0,2,2,2,1,2,0,0,0,0,0,0,0,0],"split_type":[0,0,0,0,0,0,0,0,0,0,0,0,0,0,0],"sum_hessian":[3.3174948E2,9.688387E1,2.3486562E2,1.31752615E1,8.370861E1,5.2975723E1,1.818899E2,2.6597116E0,1.051555E1,7.58636E1,7.845016E0,4.2975014E1,1.000071E1,1.7380493E1,1.6450938E2],"tree_param":{"num_deleted":"0","num_feature":"3","num_nodes":"15","size_leaf_vector":"1"}},{"base_weights":[5.559266E-4,-3.265394E-2,1.7399399E-1,-2.9586497E-1,1.24568045E-2,3.3122513E-2,4.2662418E-1,-1.1445445E-2,-7.5499326E-2,6.27735E-2,-1.0993674E-3,1.5756948E-2,-5.6422453E-2,9.69459E-2,2.8095393E-2],"categories":[],"categories_nodes":[],"categories_segments":[],"categories_sizes":[],"default_left":[0,0,0,0,0,0,0,0,0,0,0,0,0,0,0],"id":32,"left_children":[1,3,5,7,9,11,13,-1,-1,-1,-1,-1,-1,-1,-1],"loss_changes":[1.9194732E0,3.3248456E0,1.891816E0,3.3255687E0,3.466061E0,2.7254484E0,1.2370346E0,0E0,0E0,0E0,0E0,0E0,0E0,0E0,0E0],"parents":[2147483647,0,0,1,1,2,2,3,3,4,4,5,5,6,6],"right_children":[2,4,6,8,10,12,14,-1,-1,-1,-1,-1,-1,-1,-1],"split_conditions":[4.1E1,9.90522E1,1.2802019E4,7.4529785E1,1.15865166E2,2.4045633E2,3.0255298E2,-1.1445445E-2,-7.5499326E-2,6.27735E-2,-1.0993674E-3,1.5756948E-2,-5.6422453E-2,9.69459E-2,2.8095393E-2],"split_indices":[0,2,1,2,2,2,2,0,0,0,0,0,0,0,0],"split_type":[0,0,0,0,0,0,0,0,0,0,0,0,0,0,0],"sum_hessian":[3.3126382E2,2.7870853E2,5.2555298E1,3.9964725E1,2.387438E2,3.446696E1,1.8088335E1,2.9541565E1,1.04231615E1,7.8192387E0,2.3092458E2,2.913368E1,5.333282E0,2.6305456E0,1.5457789E1],"tree_param":{"num_deleted":"0","num_feature":"3","num_nodes":"15","size_leaf_vector":"1"}},{"base_weights":[6.594272E-4,-1.07895255E-1,5.017716E-2,-3.9870816E-1,-3.101058E-2,3.7292723E-2,8.7551504E-2,6.1692274E-3,-5.57848E-2,1.406704E-3,-7.8232475E-2,4.484956E-2,2.0839423E-3],"categories":[],"categories_nodes":[],"categories_segments":[],"categories_sizes":[],"default_left":[0,0,0,0,0,0,0,0,0,0,0,0,0],"id":33,"left_children":[1,3,5,7,9,11,-1,-1,-1,-1,-1,-1,-1],"loss_changes":[1.7873344E0,2.3165991E0,2.395463E0,1.6240153E0,2.8377957E0,1.518805E0,0E0,0E0,0E0,0E0,0E0,0E0,0E0],"parents":[2147483647,0,0,1,1,2,2,3,3,4,4,5,5],"right_children":[2,4,6,8,10,12,-1,-1,-1,-1,-1,-1,-1],"split_conditions":[1.7E1,1.7189992E2,4.9080582E2,4.3875065E1,6.309771E3,1.8E1,8.7551504E-2,6.1692274E-3,-5.57848E-2,1.406704E-3,-7.8232475E-2,4.484956E-2,2.0839423E-3],"split_indices":[0,2,2,2,1,0,0,0,0,0,0,0,0],"split_type":[0,0,0,0,0,0,0,0,0,0,0,0,0],"sum_hessian":[3.3049655E2,1.0316198E2,2.2733458E2,2.069568E1,8.246629E1,2.2486931E2,2.465274E0,5.4733405E0,1.5222341E1,7.872424E1,3.7420492E0,7.641185E0,2.1722812E2],"tree_param":{"num_deleted":"0","num_feature":"3","num_nodes":"13","size_leaf_vector":"1"}},{"base_weights":[5.904841E-4,-1.04607465E-2,4.6483982E-1,-3.1306392E-1,2.5876206E-3,7.578728E-2,2.1390474E-1,-2.201283E-2,-7.262219E-2,5.2765038E-2,-1.1405811E-3,-3.6210373E-2,4.355538E-2],"categories":[],"categories_nodes":[],"categories_segments":[],"categories_sizes":[],"default_left":[0,0,0,0,0,0,0,0,0,0,0,0,0],"id":34,"left_children":[1,3,5,7,9,-1,11,-1,-1,-1,-1,-1,-1],"loss_changes":[1.7023592E0,1.280698E0,4.0518093E-1,3.5495687E-1,2.2965014E0,0E0,8.661926E-1,0E0,0E0,0E0,0E0,0E0,0E0],"parents":[2147483647,0,0,1,1,2,2,3,3,4,4,6,6],"right_children":[2,4,6,8,10,-1,12,-1,-1,-1,-1,-1,-1],"split_conditions":[1.7888596E4,4.322538E2,4.4E1,4.1576877E2,5.41615E2,7.578728E-2,4.5E1,-2.201283E-2,-7.262219E-2,5.2765038E-2,-1.1405811E-3,-3.6210373E-2,4.355538E-2],"split_indices":[1,1,0,1,1,0,0,0,0,0,0,0,0],"split_type":[0,0,0,0,0,0,0,0,0,0,0,0,0],"sum_hessian":[3.298621E2,3.231472E2,6.7148952E0,1.2407757E1,3.1073944E2,2.1656876E0,4.5492077E0,1.1380602E1,1.0271549E0,7.113645E0,3.036258E2,1.0880269E0,3.4611807E0],"tree_param":{"num_deleted":"0","num_feature":"3","num_nodes":"13","size_leaf_vector":"1"}},{"base_weights":[6.58952E-4,-6.777899E-2,7.151563E-2,-3.1653127E-1,-3.1430963E-2,2.5425527E-2,3.38225E-1,-9.21802E-3,-7.592947E-2,1.1524125E-2,-1.01005025E-2,4.699662E-3,-5.294433E-2,6.1761715E-2,1.3851996E-2],"categories":[],"categories_nodes":[],"categories_segments":[],"categories_sizes":[],"default_left":[0,0,0,0,0,0,0,0,0,0,0,0,0,0,0],"id":35,"left_children":[1,3,5,7,9,11,13,-1,-1,-1,-1,-1,-1,-1,-1],"loss_changes":[1.608006E0,1.5152166E0,1.9940567E0,2.0553074E0,1.5248443E0,1.7004526E0,1.2492971E0,0E0,0E0,0E0,0E0,0E0,0E0,0E0,0E0],"parents":[2147483647,0,0,1,1,2,2,3,3,4,4,5,5,6,6],"right_children":[2,4,6,8,10,12,14,-1,-1,-1,-1,-1,-1,-1,-1],"split_conditions":[2.6E1,9.513877E1,3.849435E2,6.7648026E1,2.3624908E2,3.7469675E2,4.218217E2,-9.21802E-3,-7.592947E-2,1.1524125E-2,-1.01005025E-2,4.699662E-3,-5.294433E-2,6.1761715E-2,1.3851996E-2],"split_indices":[0,2,2,2,2,2,2,0,0,0,0,0,0,0,0],"split_type":[0,0,0,0,0,0,0,0,0,0,0,0,0,0,0],"sum_hessian":[3.2959692E2,1.6768214E2,1.6191478E2,2.039539E1,1.4728676E2,1.3899104E2,2.2923738E1,1.4338283E1,6.057107E0,4.717617E1,1.0011059E2,1.3467088E2,4.3201675E0,8.683153E0,1.4240586E1],"tree_param":{"num_deleted":"0","num_feature":"3","num_nodes":"15","size_leaf_vector":"1"}}]},"name":"gbtree"},"learner_model_param":{"base_score":"5.025E-1","boost_from_average":"1","num_class":"0","num_feature":"3","num_target":"1"},"objective":{"name":"binary:logistic","reg_loss_param":{"scale_pos_weight":"1"}}},"version":[2,0,3]}